digraph Tree {
node [shape=box, style="rounded", color="black", fontname=helvetica] ;
edge [fontname=helvetica] ;
0 [label="GB DEF = HRAR- beta 2=retinoic-acid-receptor beta/suspected tumor suppressor {5' region, transcription control region} [human, mRNA Partial, 1730 nt] <= -0.0\ngini = 0.1\nsamples = 16\nvalue = [[24, 1]\n[23, 2]\n[24, 1]\n[23, 2]\n[25, 0]\n[25, 0]\n[24, 1]\n[25, 0]\n[25, 0]\n[23, 2]\n[25, 0]\n[25, 0]\n[25, 0]\n[23, 2]\n[25, 0]\n[24, 1]\n[25, 0]\n[23, 2]\n[25, 0]\n[25, 0]\n[24, 1]\n[24, 1]\n[24, 1]\n[25, 0]\n[25, 0]\n[24, 1]\n[24, 1]\n[25, 0]\n[25, 0]\n[23, 2]\n[25, 0]\n[25, 0]\n[25, 0]\n[21, 4]]"] ;
1 [label="gini = 0.0\nsamples = 1\nvalue = [[4, 0]\n[4, 0]\n[4, 0]\n[4, 0]\n[4, 0]\n[4, 0]\n[4, 0]\n[4, 0]\n[4, 0]\n[4, 0]\n[4, 0]\n[4, 0]\n[4, 0]\n[4, 0]\n[4, 0]\n[4, 0]\n[4, 0]\n[4, 0]\n[4, 0]\n[4, 0]\n[4, 0]\n[4, 0]\n[4, 0]\n[4, 0]\n[4, 0]\n[4, 0]\n[4, 0]\n[4, 0]\n[4, 0]\n[4, 0]\n[4, 0]\n[4, 0]\n[4, 0]\n[0, 4]]"] ;
0 -> 1 [labeldistance=2.5, labelangle=45, headlabel="True"] ;
2 [label="ADENYLYL CYCLASE-ASSOCIATED PROTEIN 1 <= 0.0\ngini = 0.1\nsamples = 15\nvalue = [[20, 1]\n[19, 2]\n[20, 1]\n[19, 2]\n[21, 0]\n[21, 0]\n[20, 1]\n[21, 0]\n[21, 0]\n[19, 2]\n[21, 0]\n[21, 0]\n[21, 0]\n[19, 2]\n[21, 0]\n[20, 1]\n[21, 0]\n[19, 2]\n[21, 0]\n[21, 0]\n[20, 1]\n[20, 1]\n[20, 1]\n[21, 0]\n[21, 0]\n[20, 1]\n[20, 1]\n[21, 0]\n[21, 0]\n[19, 2]\n[21, 0]\n[21, 0]\n[21, 0]\n[21, 0]]"] ;
0 -> 2 [labeldistance=2.5, labelangle=-45, headlabel="False"] ;
3 [label="gini = 0.0\nsamples = 1\nvalue = [[2, 0]\n[2, 0]\n[2, 0]\n[2, 0]\n[2, 0]\n[2, 0]\n[2, 0]\n[2, 0]\n[2, 0]\n[2, 0]\n[2, 0]\n[2, 0]\n[2, 0]\n[0, 2]\n[2, 0]\n[2, 0]\n[2, 0]\n[2, 0]\n[2, 0]\n[2, 0]\n[2, 0]\n[2, 0]\n[2, 0]\n[2, 0]\n[2, 0]\n[2, 0]\n[2, 0]\n[2, 0]\n[2, 0]\n[2, 0]\n[2, 0]\n[2, 0]\n[2, 0]\n[2, 0]]"] ;
2 -> 3 ;
4 [label="Acylphosphatase, muscle type (MT) isoenzyme <= -0.0\ngini = 0.1\nsamples = 14\nvalue = [[18, 1]\n[17, 2]\n[18, 1]\n[17, 2]\n[19, 0]\n[19, 0]\n[18, 1]\n[19, 0]\n[19, 0]\n[17, 2]\n[19, 0]\n[19, 0]\n[19, 0]\n[19, 0]\n[19, 0]\n[18, 1]\n[19, 0]\n[17, 2]\n[19, 0]\n[19, 0]\n[18, 1]\n[18, 1]\n[18, 1]\n[19, 0]\n[19, 0]\n[18, 1]\n[18, 1]\n[19, 0]\n[19, 0]\n[17, 2]\n[19, 0]\n[19, 0]\n[19, 0]\n[19, 0]]"] ;
2 -> 4 ;
5 [label="gini = 0.0\nsamples = 1\nvalue = [[2, 0]\n[2, 0]\n[2, 0]\n[0, 2]\n[2, 0]\n[2, 0]\n[2, 0]\n[2, 0]\n[2, 0]\n[2, 0]\n[2, 0]\n[2, 0]\n[2, 0]\n[2, 0]\n[2, 0]\n[2, 0]\n[2, 0]\n[2, 0]\n[2, 0]\n[2, 0]\n[2, 0]\n[2, 0]\n[2, 0]\n[2, 0]\n[2, 0]\n[2, 0]\n[2, 0]\n[2, 0]\n[2, 0]\n[2, 0]\n[2, 0]\n[2, 0]\n[2, 0]\n[2, 0]]"] ;
4 -> 5 ;
6 [label="gini = 0.1\nsamples = 13\nvalue = [[16, 1]\n[15, 2]\n[16, 1]\n[17, 0]\n[17, 0]\n[17, 0]\n[16, 1]\n[17, 0]\n[17, 0]\n[15, 2]\n[17, 0]\n[17, 0]\n[17, 0]\n[17, 0]\n[17, 0]\n[16, 1]\n[17, 0]\n[15, 2]\n[17, 0]\n[17, 0]\n[16, 1]\n[16, 1]\n[16, 1]\n[17, 0]\n[17, 0]\n[16, 1]\n[16, 1]\n[17, 0]\n[17, 0]\n[15, 2]\n[17, 0]\n[17, 0]\n[17, 0]\n[17, 0]]"] ;
4 -> 6 ;
}